#ifndef __THYROID_TRAINED__
#define __THYROID_TRAINED__


// FANN_FLO_2.1

#define NUM_LAYERS                           2
#define LEARNING_RATE                        0.700000
#define CONNECTION_RATE                      1.000000
#define NETWORK_TYPE                         0
#define LEARNING_MOMENTUM                    0.400000
#define TRAINING_ALGORITHM                   0
#define TRAIN_ERROR_FUNCTION                 1
#define TRAIN_STOP_FUNCTION                  0
#define CASCADE_OUTPUT_CHANGE_FRACTION       0.010000
#define QUICKPROP_DECAY                      -0.000100
#define QUICKPROP_MU                         1.750000
#define RPROP_INCREASE_FACTOR                1.200000
#define RPROP_DECREASE_FACTOR                0.500000
#define RPROP_DELTA_MIN                      0.000000
#define RPROP_DELTA_MAX                      50.000000
#define RPROP_DELTA_ZERO                     0.100000
#define CASCADE_OUTPUT_STAGNATION_EPOCHS     12
#define CASCADE_CANDIDATE_CHANGE_FRACTION    0.010000
#define CASCADE_CANDIDATE_STAGNATION_EPOCHS  12
#define CASCADE_MAX_OUT_EPOCHS               150
#define CASCADE_MIN_OUT_EPOCHS               50
#define CASCADE_MAX_CAND_EPOCHS              150
#define CASCADE_MIN_CAND_EPOCHS              50
#define CASCADE_NUM_CANDIDATE_GROUPS         2
#define BIT_FAIL_LIMIT                       3.49999994039535522461e-01
#define CASCADE_CANDIDATE_LIMIT              1.00000000000000000000e+03
#define CASCADE_WEIGHT_MULTIPLIER            4.00000005960464477539e-01
#define CASCADE_ACTIVATION_FUNCTIONS_COUNT   10
#define CASCADE_ACTIVATION_FUNCTION_1        3
#define CASCADE_ACTIVATION_FUNCTION_2        5
#define CASCADE_ACTIVATION_FUNCTION_3        7
#define CASCADE_ACTIVATION_FUNCTION_4        8
#define CASCADE_ACTIVATION_FUNCTION_5        10
#define CASCADE_ACTIVATION_FUNCTION_6        11
#define CASCADE_ACTIVATION_FUNCTION_7        14
#define CASCADE_ACTIVATION_FUNCTION_8        15
#define CASCADE_ACTIVATION_FUNCTION_9        16
#define CASCADE_ACTIVATION_FUNCTION_10       17
#define CASCADE_ACTIVATION_STEEPNESSES_COUNT 4
#define CASCADE_ACTIVATION_STEEPNESS_1       2.50000000000000000000e-01
#define CASCADE_ACTIVATION_STEEPNESS_2       5.00000000000000000000e-01
#define CASCADE_ACTIVATION_STEEPNESS_3       7.50000000000000000000e-01
#define CASCADE_ACTIVATION_STEEPNESS_4       1.00000000000000000000e+00
#define LAYER_SIZE_1                         22
#define LAYER_SIZE_2                         4
#define SCALE_INCLUDED                       0

fann_type neurons[][3] = {
    {0, 0, 0.00000000000000000000e+00},
    {0, 0, 0.00000000000000000000e+00},
    {0, 0, 0.00000000000000000000e+00},
    {0, 0, 0.00000000000000000000e+00},
    {0, 0, 0.00000000000000000000e+00},
    {0, 0, 0.00000000000000000000e+00},
    {0, 0, 0.00000000000000000000e+00},
    {0, 0, 0.00000000000000000000e+00},
    {0, 0, 0.00000000000000000000e+00},
    {0, 0, 0.00000000000000000000e+00},
    {0, 0, 0.00000000000000000000e+00},
    {0, 0, 0.00000000000000000000e+00},
    {0, 0, 0.00000000000000000000e+00},
    {0, 0, 0.00000000000000000000e+00},
    {0, 0, 0.00000000000000000000e+00},
    {0, 0, 0.00000000000000000000e+00},
    {0, 0, 0.00000000000000000000e+00},
    {0, 0, 0.00000000000000000000e+00},
    {0, 0, 0.00000000000000000000e+00},
    {0, 0, 0.00000000000000000000e+00},
    {0, 0, 0.00000000000000000000e+00},
    {0, 0, 0.00000000000000000000e+00},
    {22, 4, 5.00000000000000000000e-01},
    {22, 4, 5.00000000000000000000e-01},
    {22, 4, 5.00000000000000000000e-01},
    {0, 0, 0.00000000000000000000e+00} 
};

fann_type connections[][2] = {
    {0, 1.05155014991760253906e+00},
    {1, -9.65188622474670410156e-01},
    {2, -3.42725545167922973633e-01},
    {3, -2.94157409667968750000e+00},
    {4, -4.35352325439453125000e+00},
    {5, -1.04453134536743164062e+00},
    {6, -7.40410268306732177734e-01},
    {7, -1.98928487300872802734e+00},
    {8, 6.67727351188659667969e-01},
    {9, -3.85775327682495117188e-01},
    {10, -8.37816536426544189453e-01},
    {11, -3.46732854843139648438e+00},
    {12, -2.35368990898132324219e+00},
    {13, -2.20153737068176269531e+00},
    {14, -1.01093336939811706543e-01},
    {15, -3.50727558135986328125e+00},
    {16, 5.60327720642089843750e+01},
    {17, -2.12497653961181640625e+01},
    {18, -3.62243194580078125000e+01},
    {19, -1.58200378417968750000e+01},
    {20, -3.93594932556152343750e+01},
    {21, 2.58064103126525878906e+00},
    {0, 1.38554751873016357422e+00},
    {1, -1.41001656651496887207e-01},
    {2, -4.82454967498779296875e+00},
    {3, 7.01968133449554443359e-01},
    {4, -8.54751020669937133789e-02},
    {5, -8.92017602920532226562e-01},
    {6, -2.94104623794555664062e+00},
    {7, -4.32566881179809570312e+00},
    {8, -6.59234404563903808594e-01},
    {9, 7.60305523872375488281e-01},
    {10, -2.61317908763885498047e-01},
    {11, -1.39590525627136230469e+00},
    {12, -2.95785236358642578125e+00},
    {13, -3.05068284273147583008e-01},
    {14, -9.33212578296661376953e-01},
    {15, -4.29830491542816162109e-01},
    {16, 1.06913566589355468750e+00},
    {17, -6.59369802474975585938e+00},
    {18, 4.62244540452957153320e-01},
    {19, -2.29090523719787597656e+00},
    {20, -1.20357389450073242188e+01},
    {21, -1.21825611591339111328e+00},
    {0, -4.71435785293579101562e-01},
    {1, -1.42387777566909790039e-01},
    {2, 1.76618366241455078125e+01},
    {3, -7.78653323650360107422e-01},
    {4, 9.52278256416320800781e-01},
    {5, 5.84144651889801025391e-01},
    {6, 2.83213448524475097656e+00},
    {7, 1.17121467590332031250e+01},
    {8, 3.17383527755737304688e-01},
    {9, -4.26838964223861694336e-01},
    {10, -2.64155626296997070312e-01},
    {11, 6.82975471019744873047e-01},
    {12, 3.85765290260314941406e+00},
    {13, 2.48216301202774047852e-01},
    {14, 1.44471859931945800781e+00},
    {15, 3.44725191593170166016e-01},
    {16, -2.38245300292968750000e+02},
    {17, 3.17921943664550781250e+01},
    {18, 3.25028562545776367188e+00},
    {19, -8.91478061676025390625e-01},
    {20, 1.16792688369750976562e+01},
    {21, 7.71896600723266601562e-01} 
};


#endif // __THYROID_TRAINED__
